<?xml version="1.0"?>
<opencv_storage>
<cascade>
  <stageType>BOOST</stageType>
  <featureType>HAAR</featureType>
  <height>20</height>
  <width>20</width>
  <stageParams>
    <boostType>GAB</boostType>
    <minHitRate>9.9500000476837158e-01</minHitRate>
    <maxFalseAlarm>5.0000000000000000e-01</maxFalseAlarm>
    <weightTrimRate>9.4999999999999996e-01</weightTrimRate>
    <maxDepth>1</maxDepth>
    <maxWeakCount>100</maxWeakCount></stageParams>
  <featureParams>
    <maxCatCount>0</maxCatCount>
    <featSize>1</featSize>
    <mode>BASIC</mode></featureParams>
  <stageNum>2</stageNum>
  <stages>
    <!-- stage 0 -->
    <_>
      <maxWeakCount>3</maxWeakCount>
      <stageThreshold>-1.0935159921646118e+00</stageThreshold>
      <weakClassifiers>
        <_>
          <internalNodes>
            0 -1 5 4.0945678949356079e-02</internalNodes>
          <leafValues>
            -8.8631576299667358e-01 8.0190473794937134e-01</leafValues></_>
        <_>
          <internalNodes>
            0 -1 0 2.7946070767939091e-03</internalNodes>
          <leafValues>
            -8.7858164310455322e-01 5.4744499921798706e-01</leafValues></_>
        <_>
          <internalNodes>
            0 -1 4 1.2251553125679493e-03</internalNodes>
          <leafValues>
            -6.4485818147659302e-01 6.7138147354125977e-01</leafValues></_></weakClassifiers></_>
    <!-- stage 1 -->
    <_>
      <maxWeakCount>5</maxWeakCount>
      <stageThreshold>-1.2879760265350342e+00</stageThreshold>
      <weakClassifiers>
        <_>
          <internalNodes>
            0 -1 6 1.7633277922868729e-02</internalNodes>
          <leafValues>
            -7.8538811206817627e-01 6.1209964752197266e-01</leafValues></_>
        <_>
          <internalNodes>
            0 -1 2 2.2161903325468302e-03</internalNodes>
          <leafValues>
            -6.1908102035522461e-01 6.3826370239257812e-01</leafValues></_>
        <_>
          <internalNodes>
            0 -1 7 -1.1911443434655666e-03</internalNodes>
          <leafValues>
            3.5915270447731018e-01 -9.1132980585098267e-01</leafValues></_>
        <_>
          <internalNodes>
            0 -1 3 -5.5626680841669440e-04</internalNodes>
          <leafValues>
            4.8158198595046997e-01 -5.5664026737213135e-01</leafValues></_>
        <_>
          <internalNodes>
            0 -1 1 -4.0988111868500710e-04</internalNodes>
          <leafValues>
            -7.3496776819229126e-01 3.1398069858551025e-01</leafValues></_></weakClassifiers></_></stages>
  <features>
    <_>
      <rects>
        <_>
          4 12 8 1 -1.</_>
        <_>
          8 12 4 1 2.</_></rects>
      <tilted>0</tilted></_>
    <_>
      <rects>
        <_>
          4 14 12 1 -1.</_>
        <_>
          8 14 4 1 3.</_></rects>
      <tilted>0</tilted></_>
    <_>
      <rects>
        <_>
          5 10 2 2 -1.</_>
        <_>
          6 10 1 2 2.</_></rects>
      <tilted>0</tilted></_>
    <_>
      <rects>
        <_>
          5 12 2 2 -1.</_>
        <_>
          5 12 1 1 2.</_>
        <_>
          6 13 1 1 2.</_></rects>
      <tilted>0</tilted></_>
    <_>
      <rects>
        <_>
          6 9 1 2 -1.</_>
        <_>
          6 10 1 1 2.</_></rects>
      <tilted>0</tilted></_>
    <_>
      <rects>
        <_>
          7 8 6 9 -1.</_>
        <_>
          7 11 6 3 3.</_></rects>
      <tilted>0</tilted></_>
    <_>
      <rects>
        <_>
          7 9 6 4 -1.</_>
        <_>
          7 11 6 2 2.</_></rects>
      <tilted>0</tilted></_>
    <_>
      <rects>
        <_>
          7 13 5 2 -1.</_>
        <_>
          7 14 5 1 2.</_></rects>
      <tilted>0</tilted></_></features></cascade>
</opencv_storage>
