<?xml version="1.0"?>
<opencv_storage>
<stage1>
  <maxWeakCount>5</maxWeakCount>
  <stageThreshold>-1.2879760265350342e+00</stageThreshold>
  <weakClassifiers>
    <_>
      <internalNodes>
        0 -1 48671 1.7633277922868729e-02</internalNodes>
      <leafValues>
        -7.8538811206817627e-01 6.1209964752197266e-01</leafValues></_>
    <_>
      <internalNodes>
        0 -1 38425 2.2161903325468302e-03</internalNodes>
      <leafValues>
        -6.1908102035522461e-01 6.3826370239257812e-01</leafValues></_>
    <_>
      <internalNodes>
        0 -1 49456 -1.1911443434655666e-03</internalNodes>
      <leafValues>
        3.5915270447731018e-01 -9.1132980585098267e-01</leafValues></_>
    <_>
      <internalNodes>
        0 -1 38940 -5.5626680841669440e-04</internalNodes>
      <leafValues>
        4.8158198595046997e-01 -5.5664026737213135e-01</leafValues></_>
    <_>
      <internalNodes>
        0 -1 33683 -4.0988111868500710e-04</internalNodes>
      <leafValues>
        -7.3496776819229126e-01 3.1398069858551025e-01</leafValues></_></weakClassifiers></stage1>
</opencv_storage>
